FANN_FLO_2.1
num_layers=3
learning_rate=0.700000
connection_rate=1.000000
network_type=0
learning_momentum=0.000000
training_algorithm=2
train_error_function=1
train_stop_function=0
cascade_output_change_fraction=0.010000
quickprop_decay=-0.000100
quickprop_mu=1.750000
rprop_increase_factor=1.200000
rprop_decrease_factor=0.500000
rprop_delta_min=0.000000
rprop_delta_max=50.000000
rprop_delta_zero=0.100000
cascade_output_stagnation_epochs=12
cascade_candidate_change_fraction=0.010000
cascade_candidate_stagnation_epochs=12
cascade_max_out_epochs=150
cascade_min_out_epochs=50
cascade_max_cand_epochs=150
cascade_min_cand_epochs=50
cascade_num_candidate_groups=2
bit_fail_limit=3.49999994039535522461e-01
cascade_candidate_limit=1.00000000000000000000e+03
cascade_weight_multiplier=4.00000005960464477539e-01
cascade_activation_functions_count=10
cascade_activation_functions=3 5 7 8 10 11 14 15 16 17 
cascade_activation_steepnesses_count=4
cascade_activation_steepnesses=2.50000000000000000000e-01 5.00000000000000000000e-01 7.50000000000000000000e-01 1.00000000000000000000e+00 
layer_sizes=7 37 4 
scale_included=0
neurons (num_inputs, activation_function, activation_steepness)=(0, 0, 0.00000000000000000000e+00) (0, 0, 0.00000000000000000000e+00) (0, 0, 0.00000000000000000000e+00) (0, 0, 0.00000000000000000000e+00) (0, 0, 0.00000000000000000000e+00) (0, 0, 0.00000000000000000000e+00) (0, 0, 0.00000000000000000000e+00) (7, 5, 5.00000000000000000000e-01) (7, 5, 5.00000000000000000000e-01) (7, 5, 5.00000000000000000000e-01) (7, 5, 5.00000000000000000000e-01) (7, 5, 5.00000000000000000000e-01) (7, 5, 5.00000000000000000000e-01) (7, 5, 5.00000000000000000000e-01) (7, 5, 5.00000000000000000000e-01) (7, 5, 5.00000000000000000000e-01) (7, 5, 5.00000000000000000000e-01) (7, 5, 5.00000000000000000000e-01) (7, 5, 5.00000000000000000000e-01) (7, 5, 5.00000000000000000000e-01) (7, 5, 5.00000000000000000000e-01) (7, 5, 5.00000000000000000000e-01) (7, 5, 5.00000000000000000000e-01) (7, 5, 5.00000000000000000000e-01) (7, 5, 5.00000000000000000000e-01) (7, 5, 5.00000000000000000000e-01) (7, 5, 5.00000000000000000000e-01) (7, 5, 5.00000000000000000000e-01) (7, 5, 5.00000000000000000000e-01) (7, 5, 5.00000000000000000000e-01) (7, 5, 5.00000000000000000000e-01) (7, 5, 5.00000000000000000000e-01) (7, 5, 5.00000000000000000000e-01) (7, 5, 5.00000000000000000000e-01) (7, 5, 5.00000000000000000000e-01) (7, 5, 5.00000000000000000000e-01) (7, 5, 5.00000000000000000000e-01) (7, 5, 5.00000000000000000000e-01) (7, 5, 5.00000000000000000000e-01) (7, 5, 5.00000000000000000000e-01) (7, 5, 5.00000000000000000000e-01) (7, 5, 5.00000000000000000000e-01) (7, 5, 5.00000000000000000000e-01) (0, 5, 0.00000000000000000000e+00) (37, 5, 5.00000000000000000000e-01) (37, 5, 5.00000000000000000000e-01) (37, 5, 5.00000000000000000000e-01) (0, 5, 0.00000000000000000000e+00) 
connections (connected_to_neuron, weight)=(0, 1.10450074076652526855e-01) (1, -5.84328286349773406982e-02) (2, -1.18826841935515403748e-02) (3, 5.46227097511291503906e-02) (4, 1.65853612124919891357e-02) (5, -3.42290140688419342041e-02) (6, -6.75240904092788696289e-03) (0, -2.58010514080524444580e-02) (1, 6.88729956746101379395e-02) (2, 9.57524552941322326660e-02) (3, 5.83065897226333618164e-02) (4, 8.65807291120290756226e-04) (5, -7.23772794008255004883e-02) (6, -4.07568626105785369873e-02) (0, -3.88478264212608337402e-02) (1, 6.07147812843322753906e-05) (2, 9.12214219570159912109e-02) (3, 5.18467240035533905029e-02) (4, 8.68654996156692504883e-02) (5, -7.22927600145339965820e-02) (6, 1.78288035094738006592e-02) (0, -2.16873846948146820068e-02) (1, 2.07167267799377441406e-02) (2, 4.15271706879138946533e-02) (3, 5.12949004769325256348e-02) (4, -6.14608898758888244629e-02) (5, -7.90178999304771423340e-02) (6, -5.78757077455520629883e-02) (0, 5.07240816950798034668e-02) (1, -3.65513041615486145020e-02) (2, -6.74355253577232360840e-02) (3, 4.63432855904102325439e-02) (4, -1.01280789822340011597e-02) (5, -1.32694812491536140442e-02) (6, 1.32010551169514656067e-02) (0, 1.38281419873237609863e-01) (1, 2.69809737801551818848e-02) (2, -6.99384603649377822876e-03) (3, -6.34473785758018493652e-02) (4, 3.84477414190769195557e-02) (5, -5.04566356539726257324e-02) (6, 5.07631227374076843262e-02) (0, 1.13596856594085693359e-01) (1, -8.11018049716949462891e-02) (2, 2.63302144594490528107e-03) (3, -7.61180743575096130371e-02) (4, 4.05203439295291900635e-02) (5, -3.72702963650226593018e-02) (6, 5.70740699768066406250e-02) (0, -5.11864665895700454712e-03) (1, -2.57297456264495849609e-02) (2, -2.51121968030929565430e-02) (3, -9.66856926679611206055e-02) (4, 9.87755432724952697754e-02) (5, -5.37512227892875671387e-02) (6, 4.37242835760116577148e-02) (0, -1.82090643793344497681e-02) (1, -5.64801283180713653564e-02) (2, -1.73612758517265319824e-02) (3, -9.63961333036422729492e-02) (4, 5.93951605260372161865e-02) (5, 3.39130386710166931152e-02) (6, -5.66910114139318466187e-03) (0, -9.27598625421524047852e-02) (1, 8.33596661686897277832e-02) (2, -5.91898970305919647217e-02) (3, 9.42706093192100524902e-02) (4, 1.73653382807970046997e-02) (5, -1.61894597113132476807e-02) (6, -7.81926587224006652832e-02) (0, -1.03196337819099426270e-01) (1, -1.62689089775085449219e-02) (2, -8.70920866727828979492e-02) (3, 8.87440517544746398926e-02) (4, 7.19313230365514755249e-03) (5, -4.96836146339774131775e-03) (6, -9.35152620077133178711e-02) (0, -2.30234619230031967163e-02) (1, 3.16339954733848571777e-02) (2, 1.48585721850395202637e-01) (3, 3.25601436197757720947e-02) (4, -5.96284121274948120117e-02) (5, 1.52258872985839843750e-02) (6, -8.86216294020414352417e-04) (0, -1.17935135960578918457e-01) (1, 2.32170075178146362305e-02) (2, -3.84379923343658447266e-02) (3, -8.47714245319366455078e-02) (4, 5.81406056880950927734e-02) (5, -1.79423335939645767212e-02) (6, -7.48346447944641113281e-02) (0, 3.82857061922550201416e-02) (1, 7.21383318305015563965e-02) (2, 1.29525631666183471680e-01) (3, -1.97832901030778884888e-02) (4, 6.38464987277984619141e-02) (5, -8.35048556327819824219e-02) (6, -2.97397803515195846558e-02) (0, -5.39940409362316131592e-02) (1, -1.50705054402351379395e-02) (2, -1.45273292437195777893e-02) (3, -3.00862640142440795898e-02) (4, 4.28126268088817596436e-02) (5, 3.78814851865172386169e-03) (6, -1.48732624948024749756e-02) (0, -1.01047959178686141968e-02) (1, -7.98951610922813415527e-02) (2, -1.11064538359642028809e-02) (3, -1.01617509499192237854e-02) (4, 4.60830107331275939941e-02) (5, -4.56422120332717895508e-02) (6, -6.86571151018142700195e-02) (0, 9.63059365749359130859e-02) (1, 4.07686755061149597168e-02) (2, 9.99291390180587768555e-02) (3, 5.79144470393657684326e-02) (4, -1.55034055933356285095e-02) (5, -3.91202904284000396729e-02) (6, 5.25156483054161071777e-02) (0, -1.01309278979897499084e-02) (1, 3.10224816203117370605e-02) (2, 1.50520265102386474609e-01) (3, 1.57468020915985107422e-05) (4, 1.50567963719367980957e-02) (5, 6.48229643702507019043e-02) (6, 7.82194435596466064453e-02) (0, 1.21077708899974822998e-02) (1, 6.10688850283622741699e-02) (2, 2.54627540707588195801e-02) (3, 2.46552303433418273926e-02) (4, -1.94803997874259948730e-02) (5, 1.10696554183959960938e-01) (6, 6.20071291923522949219e-02) (0, -1.27053856849670410156e-02) (1, 5.81034272909164428711e-03) (2, 3.21815237402915954590e-02) (3, -1.58036351203918457031e-02) (4, 6.20720535516738891602e-02) (5, 6.22948110103607177734e-02) (6, 4.26669493317604064941e-02) (0, 2.96195577830076217651e-02) (1, 8.61474946141242980957e-02) (2, -4.01394218206405639648e-02) (3, -6.48724958300590515137e-02) (4, 5.86629323661327362061e-02) (5, 9.55355390906333923340e-02) (6, 6.20825365185737609863e-02) (0, 3.24765406548976898193e-02) (1, -9.58461910486221313477e-02) (2, 3.66954505443572998047e-03) (3, -8.05377513170242309570e-02) (4, -1.41234947368502616882e-02) (5, 7.15286377817392349243e-03) (6, 7.53548443317413330078e-02) (0, -9.22861844301223754883e-02) (1, 9.37976688146591186523e-03) (2, -1.68741177767515182495e-02) (3, -3.71419638395309448242e-03) (4, -5.41547872126102447510e-02) (5, 6.02940469980239868164e-02) (6, -5.39014749228954315186e-02) (0, -2.68517695367336273193e-02) (1, 6.10721483826637268066e-02) (2, -1.25925973057746887207e-01) (3, 3.56505028903484344482e-02) (4, -3.39078530669212341309e-02) (5, -2.69598737359046936035e-02) (6, -8.21530371904373168945e-02) (0, 2.34460085630416870117e-03) (1, 9.99668464064598083496e-02) (2, 1.05319172143936157227e-03) (3, -2.60890685021877288818e-02) (4, 4.70526218414306640625e-02) (5, -1.38669893145561218262e-01) (6, 4.48151901364326477051e-02) (0, 1.67773775756359100342e-02) (1, 6.41831532120704650879e-02) (2, 3.64516582340002059937e-03) (3, 3.45388194546103477478e-03) (4, 6.74635767936706542969e-02) (5, -3.44337336719036102295e-02) (6, 2.64301840215921401978e-02) (0, -4.25280518829822540283e-02) (1, -7.71049857139587402344e-02) (2, -9.69539433717727661133e-02) (3, 4.22348044812679290771e-02) (4, 3.60944308340549468994e-03) (5, 3.91114242374897003174e-02) (6, -3.24856080114841461182e-02) (0, -7.08645358681678771973e-02) (1, 5.26787713170051574707e-02) (2, -1.15804988890886306763e-02) (3, 1.90464425832033157349e-02) (4, 3.02562005817890167236e-02) (5, -5.12969726696610450745e-03) (6, -6.62302002310752868652e-02) (0, 1.10603325068950653076e-01) (1, 5.21957948803901672363e-02) (2, -3.45614366233348846436e-03) (3, 6.74040839076042175293e-02) (4, 3.54748405516147613525e-02) (5, -5.34740276634693145752e-02) (6, -3.94301153719425201416e-02) (0, 8.96744579076766967773e-02) (1, -3.63903120160102844238e-02) (2, 1.04125007987022399902e-01) (3, -4.89057414233684539795e-02) (4, -4.08759489655494689941e-02) (5, -1.94548051804304122925e-02) (6, 2.39064451307058334351e-02) (0, 1.64266005158424377441e-02) (1, 1.56514793634414672852e-02) (2, -1.03636741638183593750e-01) (3, 3.07823589537292718887e-04) (4, -9.52046550810337066650e-03) (5, -1.56652890145778656006e-02) (6, -1.04354601353406906128e-02) (0, 1.65753141045570373535e-02) (1, 1.85355544090270996094e-04) (2, 2.97091603279113769531e-02) (3, -2.46965344995260238647e-02) (4, -8.72969254851341247559e-03) (5, 7.90872052311897277832e-02) (6, 5.43071478605270385742e-02) (0, 2.60926168411970138550e-02) (1, -8.09570848941802978516e-02) (2, -9.98053625226020812988e-02) (3, 4.83233556151390075684e-02) (4, 5.11460080742835998535e-02) (5, -9.77178942412137985229e-03) (6, 4.07742746174335479736e-02) (0, -3.69973778724670410156e-02) (1, 7.35360011458396911621e-02) (2, 2.32680421322584152222e-03) (3, -3.36940996348857879639e-02) (4, -7.42392912507057189941e-02) (5, 2.80632451176643371582e-03) (6, 2.43734195828437805176e-02) (0, -4.47309948503971099854e-02) (1, 6.34056851267814636230e-02) (2, -4.02141325175762176514e-02) (3, -3.56009937822818756104e-02) (4, -5.44055085629224777222e-03) (5, 6.45253136754035949707e-02) (6, 4.52084392309188842773e-02) (0, 1.07584437355399131775e-02) (1, -1.85718089342117309570e-02) (2, 3.61475162208080291748e-04) (3, -1.40651399269700050354e-02) (4, 1.26304820179939270020e-01) (5, 2.72400546818971633911e-02) (6, 1.72740947455167770386e-02) (7, 6.30083978176116943359e-02) (8, 6.23343028128147125244e-02) (9, -3.93671169877052307129e-02) (10, 6.49750307202339172363e-02) (11, 4.91068996489048004150e-02) (12, -8.57199952006340026855e-02) (13, -4.80342060327529907227e-02) (14, 6.69563263654708862305e-02) (15, 2.33333110809326171875e-02) (16, 1.90224014222621917725e-02) (17, -3.08853946626186370850e-02) (18, 7.42130912840366363525e-03) (19, 5.98049201071262359619e-02) (20, -3.92729230225086212158e-02) (21, -3.03379795514047145844e-03) (22, -3.20085734128952026367e-02) (23, -1.22062545269727706909e-02) (24, -5.11770173907279968262e-02) (25, 3.51100414991378784180e-03) (26, -2.54893284291028976440e-02) (27, 4.68534193933010101318e-02) (28, -8.21353644132614135742e-02) (29, -1.41986310482025146484e-02) (30, 6.25061020255088806152e-02) (31, 4.66124229133129119873e-02) (32, 5.32672740519046783447e-02) (33, 8.03026333451271057129e-02) (34, -1.78695959039032459259e-03) (35, -6.42705485224723815918e-02) (36, 4.81623783707618713379e-03) (37, 3.13735790550708770752e-02) (38, 6.20566941797733306885e-02) (39, -3.31296259537339210510e-03) (40, 3.94779592752456665039e-02) (41, 3.71016934514045715332e-02) (42, 3.18434983491897583008e-02) (43, 6.63630485534667968750e-01) (7, -4.96215485036373138428e-02) (8, -1.52209158986806869507e-02) (9, -2.20492333173751831055e-02) (10, 5.80340512096881866455e-02) (11, 5.39562068879604339600e-02) (12, -7.77782946825027465820e-02) (13, -6.96664676070213317871e-02) (14, 4.43182066082954406738e-02) (15, -8.07549506425857543945e-02) (16, 7.77329206466674804688e-02) (17, 7.12796300649642944336e-03) (18, -2.67762858420610427856e-02) (19, 3.84926199913024902344e-02) (20, -1.28147587180137634277e-01) (21, 9.51058976352214813232e-03) (22, -2.03706398606300354004e-02) (23, -5.84838241338729858398e-02) (24, -9.92818623781204223633e-02) (25, -8.30154493451118469238e-02) (26, -1.10592298209667205811e-01) (27, -2.42850612848997116089e-02) (28, 2.82099582254886627197e-02) (29, -1.39485439285635948181e-02) (30, 8.81478860974311828613e-02) (31, 1.09503641724586486816e-01) (32, 4.55691106617450714111e-02) (33, 7.31647238135337829590e-02) (34, -2.49778162688016891479e-02) (35, -8.14600810408592224121e-02) (36, -4.65023741126060485840e-02) (37, 8.62953141331672668457e-02) (38, -3.88301573693752288818e-02) (39, 9.31349489837884902954e-03) (40, 9.93047803640365600586e-02) (41, 9.48823988437652587891e-02) (42, -9.81787219643592834473e-02) (43, 9.88902032375335693359e-01) (7, 4.09106165170669555664e-02) (8, 2.39941831678152084351e-02) (9, 8.24148878455162048340e-02) (10, -6.29030689597129821777e-02) (11, -5.01155182719230651855e-02) (12, 1.66105348616838455200e-02) (13, 2.81146634370088577271e-03) (14, -3.85487377643585205078e-02) (15, -3.82103142328560352325e-04) (16, 7.01804691925644874573e-03) (17, -8.24610069394111633301e-02) (18, 9.58180725574493408203e-02) (19, -2.46883034706115722656e-02) (20, 1.32254317402839660645e-01) (21, 1.43829928711056709290e-02) (22, 7.69997686147689819336e-02) (23, 5.57034984230995178223e-02) (24, 1.27656936645507812500e-01) (25, 1.46870017051696777344e-02) (26, 5.42159453034400939941e-02) (27, 7.94107392430305480957e-02) (28, -3.18538919091224670410e-02) (29, -6.42525255680084228516e-02) (30, -1.16458602249622344971e-01) (31, -1.23341925442218780518e-01) (32, 7.03041851520538330078e-02) (33, -2.82805990427732467651e-02) (34, 1.46481730043888092041e-02) (35, 1.29825845360755920410e-01) (36, 8.17378759384155273438e-02) (37, -7.82736837863922119141e-02) (38, 2.09109168499708175659e-02) (39, -9.87681075930595397949e-02) (40, -1.18068143725395202637e-01) (41, -1.62524413317441940308e-02) (42, 1.14130906760692596436e-01) (43, 7.36157119274139404297e-01) 
